<?xml version="1.0"?>
<opencv_storage>
<cascade>
  <stageType>BOOST</stageType>
  <featureType>HAAR</featureType>
  <height>46</height>
  <width>38</width>
  <stageParams>
    <boostType>GAB</boostType>
    <minHitRate>9.9500000476837158e-01</minHitRate>
    <maxFalseAlarm>5.0000000000000000e-01</maxFalseAlarm>
    <weightTrimRate>9.4999998807907104e-01</weightTrimRate>
    <maxDepth>1</maxDepth>
    <maxWeakCount>100</maxWeakCount></stageParams>
  <featureParams>
    <maxCatCount>0</maxCatCount>
    <featSize>1</featSize>
    <mode>BASIC</mode></featureParams>
  <stageNum>3</stageNum>
  <stages>
    <!-- stage 0 -->
    <_>
      <maxWeakCount>2</maxWeakCount>
      <stageThreshold>-1.9354368746280670e-01</stageThreshold>
      <weakClassifiers>
        <_>
          <internalNodes>
            0 -1 3 -1.8800988793373108e-02</internalNodes>
          <leafValues>
            5.8762884140014648e-01 -7.7880185842514038e-01</leafValues></_>
        <_>
          <internalNodes>
            0 -1 4 7.5503252446651459e-03</internalNodes>
          <leafValues>
            -7.8117257356643677e-01 6.7213886976242065e-01</leafValues></_></weakClassifiers></_>
    <!-- stage 1 -->
    <_>
      <maxWeakCount>2</maxWeakCount>
      <stageThreshold>1.5898711979389191e-02</stageThreshold>
      <weakClassifiers>
        <_>
          <internalNodes>
            0 -1 0 -1.2722869217395782e-01</internalNodes>
          <leafValues>
            7.5257730484008789e-01 -8.5253453254699707e-01</leafValues></_>
        <_>
          <internalNodes>
            0 -1 5 1.9523143419064581e-04</internalNodes>
          <leafValues>
            -6.4594662189483643e-01 8.6843329668045044e-01</leafValues></_></weakClassifiers></_>
    <!-- stage 2 -->
    <_>
      <maxWeakCount>2</maxWeakCount>
      <stageThreshold>9.2592602595686913e-03</stageThreshold>
      <weakClassifiers>
        <_>
          <internalNodes>
            0 -1 1 -1.4581590949092060e-04</internalNodes>
          <leafValues>
            -9.9065423011779785e-01 1.</leafValues></_>
        <_>
          <internalNodes>
            0 -1 2 -1.0638264939188957e-04</internalNodes>
          <leafValues>
            -9.9074071645736694e-01 1.</leafValues></_></weakClassifiers></_></stages>
  <features>
    <_>
      <rects>
        <_>
          0 2 30 34 -1.</_>
        <_>
          15 2 15 34 2.</_></rects>
      <tilted>0</tilted></_>
    <_>
      <rects>
        <_>
          2 42 4 4 -1.</_>
        <_>
          2 44 4 2 2.</_></rects>
      <tilted>0</tilted></_>
    <_>
      <rects>
        <_>
          3 42 3 4 -1.</_>
        <_>
          3 44 3 2 2.</_></rects>
      <tilted>0</tilted></_>
    <_>
      <rects>
        <_>
          5 5 23 10 -1.</_>
        <_>
          5 10 23 5 2.</_></rects>
      <tilted>0</tilted></_>
    <_>
      <rects>
        <_>
          10 38 28 8 -1.</_>
        <_>
          10 42 28 4 2.</_></rects>
      <tilted>0</tilted></_>
    <_>
      <rects>
        <_>
          37 43 1 2 -1.</_>
        <_>
          37 44 1 1 2.</_></rects>
      <tilted>0</tilted></_></features></cascade>
</opencv_storage>
