<?xml version="1.0"?>
<opencv_storage>
<cascade>
  <stageType>BOOST</stageType>
  <featureType>HAAR</featureType>
  <height>46</height>
  <width>38</width>
  <stageParams>
    <boostType>GAB</boostType>
    <minHitRate>9.9500000476837158e-01</minHitRate>
    <maxFalseAlarm>5.0000000000000000e-01</maxFalseAlarm>
    <weightTrimRate>9.4999998807907104e-01</weightTrimRate>
    <maxDepth>1</maxDepth>
    <maxWeakCount>100</maxWeakCount></stageParams>
  <featureParams>
    <maxCatCount>0</maxCatCount>
    <featSize>1</featSize>
    <mode>BASIC</mode></featureParams>
  <stageNum>5</stageNum>
  <stages>
    <!-- stage 0 -->
    <_>
      <maxWeakCount>3</maxWeakCount>
      <stageThreshold>-1.6187725067138672e+00</stageThreshold>
      <weakClassifiers>
        <_>
          <internalNodes>
            0 -1 2 -1.2565576471388340e-02</internalNodes>
          <leafValues>
            1. -9.3333333730697632e-01</leafValues></_>
        <_>
          <internalNodes>
            0 -1 14 3.8489471189677715e-03</internalNodes>
          <leafValues>
            -9.4731092453002930e-01 1.2790986895561218e-01</leafValues></_>
        <_>
          <internalNodes>
            0 -1 11 7.3761283420026302e-04</internalNodes>
          <leafValues>
            -8.1334906816482544e-01 3.5339534282684326e-01</leafValues></_></weakClassifiers></_>
    <!-- stage 1 -->
    <_>
      <maxWeakCount>4</maxWeakCount>
      <stageThreshold>-1.8456252813339233e+00</stageThreshold>
      <weakClassifiers>
        <_>
          <internalNodes>
            0 -1 3 -3.3802755177021027e-02</internalNodes>
          <leafValues>
            1. -9.3664383888244629e-01</leafValues></_>
        <_>
          <internalNodes>
            0 -1 9 1.1854952201247215e-02</internalNodes>
          <leafValues>
            -8.0762362480163574e-01 6.0958749055862427e-01</leafValues></_>
        <_>
          <internalNodes>
            0 -1 0 -2.8419855982065201e-02</internalNodes>
          <leafValues>
            6.8466269969940186e-01 -6.6645532846450806e-01</leafValues></_>
        <_>
          <internalNodes>
            0 -1 4 2.5512813590466976e-04</internalNodes>
          <leafValues>
            -6.7513084411621094e-01 5.6509751081466675e-01</leafValues></_></weakClassifiers></_>
    <!-- stage 2 -->
    <_>
      <maxWeakCount>4</maxWeakCount>
      <stageThreshold>-1.7387752532958984e+00</stageThreshold>
      <weakClassifiers>
        <_>
          <internalNodes>
            0 -1 13 -9.0620648115873337e-03</internalNodes>
          <leafValues>
            1. -9.3830335140228271e-01</leafValues></_>
        <_>
          <internalNodes>
            0 -1 7 -3.8681547157466412e-03</internalNodes>
          <leafValues>
            6.7588323354721069e-01 -8.1768596172332764e-01</leafValues></_>
        <_>
          <internalNodes>
            0 -1 12 -1.5333367511630058e-02</internalNodes>
          <leafValues>
            9.6534872055053711e-01 -5.6446790695190430e-01</leafValues></_>
        <_>
          <internalNodes>
            0 -1 5 -1.4584809541702271e-03</internalNodes>
          <leafValues>
            5.8168202638626099e-01 -6.8448573350906372e-01</leafValues></_></weakClassifiers></_>
    <!-- stage 3 -->
    <_>
      <maxWeakCount>3</maxWeakCount>
      <stageThreshold>-1.1302996873855591e+00</stageThreshold>
      <weakClassifiers>
        <_>
          <internalNodes>
            0 -1 10 9.7808605059981346e-03</internalNodes>
          <leafValues>
            -9.4999998807907104e-01 1.</leafValues></_>
        <_>
          <internalNodes>
            0 -1 8 1.3013267889618874e-03</internalNodes>
          <leafValues>
            -8.6752194166183472e-01 1.</leafValues></_>
        <_>
          <internalNodes>
            0 -1 6 -1.8386376905255020e-04</internalNodes>
          <leafValues>
            6.8722230195999146e-01 -8.2897168397903442e-01</leafValues></_></weakClassifiers></_>
    <!-- stage 4 -->
    <_>
      <maxWeakCount>1</maxWeakCount>
      <stageThreshold>1.</stageThreshold>
      <weakClassifiers>
        <_>
          <internalNodes>
            0 -1 1 3.7753133801743388e-04</internalNodes>
          <leafValues>
            1. -1.</leafValues></_></weakClassifiers></_></stages>
  <features>
    <_>
      <rects>
        <_>
          0 12 20 12 -1.</_>
        <_>
          0 12 10 6 2.</_>
        <_>
          10 18 10 6 2.</_></rects>
      <tilted>0</tilted></_>
    <_>
      <rects>
        <_>
          0 20 3 2 -1.</_>
        <_>
          0 21 3 1 2.</_></rects>
      <tilted>0</tilted></_>
    <_>
      <rects>
        <_>
          0 40 3 6 -1.</_>
        <_>
          0 43 3 3 2.</_></rects>
      <tilted>0</tilted></_>
    <_>
      <rects>
        <_>
          0 42 26 4 -1.</_>
        <_>
          0 44 26 2 2.</_></rects>
      <tilted>0</tilted></_>
    <_>
      <rects>
        <_>
          3 5 1 9 -1.</_>
        <_>
          3 8 1 3 3.</_></rects>
      <tilted>0</tilted></_>
    <_>
      <rects>
        <_>
          10 2 6 14 -1.</_>
        <_>
          10 2 3 7 2.</_>
        <_>
          13 9 3 7 2.</_></rects>
      <tilted>0</tilted></_>
    <_>
      <rects>
        <_>
          10 15 21 2 -1.</_>
        <_>
          10 16 21 1 2.</_></rects>
      <tilted>0</tilted></_>
    <_>
      <rects>
        <_>
          11 29 15 1 -1.</_>
        <_>
          16 29 5 1 3.</_></rects>
      <tilted>0</tilted></_>
    <_>
      <rects>
        <_>
          16 17 20 2 -1.</_>
        <_>
          16 17 10 1 2.</_>
        <_>
          26 18 10 1 2.</_></rects>
      <tilted>0</tilted></_>
    <_>
      <rects>
        <_>
          23 19 10 6 -1.</_>
        <_>
          23 22 10 3 2.</_></rects>
      <tilted>0</tilted></_>
    <_>
      <rects>
        <_>
          26 9 6 32 -1.</_>
        <_>
          29 9 3 32 2.</_></rects>
      <tilted>0</tilted></_>
    <_>
      <rects>
        <_>
          26 12 2 33 -1.</_>
        <_>
          27 12 1 33 2.</_></rects>
      <tilted>0</tilted></_>
    <_>
      <rects>
        <_>
          26 14 7 9 -1.</_>
        <_>
          26 17 7 3 3.</_></rects>
      <tilted>0</tilted></_>
    <_>
      <rects>
        <_>
          26 42 7 4 -1.</_>
        <_>
          26 44 7 2 2.</_></rects>
      <tilted>0</tilted></_>
    <_>
      <rects>
        <_>
          37 2 1 36 -1.</_>
        <_>
          37 20 1 18 2.</_></rects>
      <tilted>0</tilted></_></features></cascade>
</opencv_storage>
