<?xml version="1.0"?>
<opencv_storage>
<cascade>
  <stageType>BOOST</stageType>
  <featureType>HAAR</featureType>
  <height>46</height>
  <width>38</width>
  <stageParams>
    <boostType>GAB</boostType>
    <minHitRate>9.9500000476837158e-01</minHitRate>
    <maxFalseAlarm>5.0000000000000000e-01</maxFalseAlarm>
    <weightTrimRate>9.4999998807907104e-01</weightTrimRate>
    <maxDepth>1</maxDepth>
    <maxWeakCount>100</maxWeakCount></stageParams>
  <featureParams>
    <maxCatCount>0</maxCatCount>
    <featSize>1</featSize>
    <mode>BASIC</mode></featureParams>
  <stageNum>18</stageNum>
  <stages>
    <!-- stage 0 -->
    <_>
      <maxWeakCount>4</maxWeakCount>
      <stageThreshold>-1.9582328796386719e+00</stageThreshold>
      <weakClassifiers>
        <_>
          <internalNodes>
            0 -1 80 -8.3312764763832092e-02</internalNodes>
          <leafValues>
            6.8750000000000000e-01 -9.6363633871078491e-01</leafValues></_>
        <_>
          <internalNodes>
            0 -1 58 -2.0770760253071785e-02</internalNodes>
          <leafValues>
            6.6963863372802734e-01 -8.8298505544662476e-01</leafValues></_>
        <_>
          <internalNodes>
            0 -1 25 -2.7102319523692131e-02</internalNodes>
          <leafValues>
            7.3730552196502686e-01 -7.5563144683837891e-01</leafValues></_>
        <_>
          <internalNodes>
            0 -1 48 -1.7084825783967972e-02</internalNodes>
          <leafValues>
            6.4402002096176147e-01 -7.7391147613525391e-01</leafValues></_></weakClassifiers></_>
    <!-- stage 1 -->
    <_>
      <maxWeakCount>4</maxWeakCount>
      <stageThreshold>-1.7798448801040649e+00</stageThreshold>
      <weakClassifiers>
        <_>
          <internalNodes>
            0 -1 7 -7.7553957700729370e-02</internalNodes>
          <leafValues>
            6.5217393636703491e-01 -9.5133435726165771e-01</leafValues></_>
        <_>
          <internalNodes>
            0 -1 31 -1.4094629883766174e-01</internalNodes>
          <leafValues>
            7.4863785505294800e-01 -8.2157129049301147e-01</leafValues></_>
        <_>
          <internalNodes>
            0 -1 37 6.2037307769060135e-02</internalNodes>
          <leafValues>
            -7.1321684122085571e-01 7.5700569152832031e-01</leafValues></_>
        <_>
          <internalNodes>
            0 -1 70 -1.6786023974418640e-02</internalNodes>
          <leafValues>
            7.0627760887145996e-01 -4.9050113558769226e-01</leafValues></_></weakClassifiers></_>
    <!-- stage 2 -->
    <_>
      <maxWeakCount>5</maxWeakCount>
      <stageThreshold>-1.6416692733764648e+00</stageThreshold>
      <weakClassifiers>
        <_>
          <internalNodes>
            0 -1 72 2.0322140306234360e-02</internalNodes>
          <leafValues>
            -9.4803148508071899e-01 2.5925925374031067e-01</leafValues></_>
        <_>
          <internalNodes>
            0 -1 27 -2.2206671535968781e-02</internalNodes>
          <leafValues>
            5.7625806331634521e-01 -7.6856940984725952e-01</leafValues></_>
        <_>
          <internalNodes>
            0 -1 81 3.5966013092547655e-03</internalNodes>
          <leafValues>
            -5.1653581857681274e-01 7.2171264886856079e-01</leafValues></_>
        <_>
          <internalNodes>
            0 -1 10 3.6737942718900740e-04</internalNodes>
          <leafValues>
            3.2944482564926147e-01 -1.</leafValues></_>
        <_>
          <internalNodes>
            0 -1 11 3.8325338391587138e-04</internalNodes>
          <leafValues>
            2.6202258467674255e-01 -9.3641239404678345e-01</leafValues></_></weakClassifiers></_>
    <!-- stage 3 -->
    <_>
      <maxWeakCount>5</maxWeakCount>
      <stageThreshold>-2.1110730171203613e+00</stageThreshold>
      <weakClassifiers>
        <_>
          <internalNodes>
            0 -1 77 -1.1657821014523506e-02</internalNodes>
          <leafValues>
            4.7368422150611877e-01 -9.4366198778152466e-01</leafValues></_>
        <_>
          <internalNodes>
            0 -1 26 -2.6840254664421082e-02</internalNodes>
          <leafValues>
            6.6933089494705200e-01 -7.5457167625427246e-01</leafValues></_>
        <_>
          <internalNodes>
            0 -1 9 1.6493534203618765e-03</internalNodes>
          <leafValues>
            2.5871214270591736e-01 -8.9789938926696777e-01</leafValues></_>
        <_>
          <internalNodes>
            0 -1 18 5.4916105000302196e-05</internalNodes>
          <leafValues>
            2.3730705678462982e-01 -9.1819924116134644e-01</leafValues></_>
        <_>
          <internalNodes>
            0 -1 6 -1.8103815091308206e-04</internalNodes>
          <leafValues>
            -9.5761585235595703e-01 2.4775302410125732e-01</leafValues></_></weakClassifiers></_>
    <!-- stage 4 -->
    <_>
      <maxWeakCount>3</maxWeakCount>
      <stageThreshold>-9.5747065544128418e-01</stageThreshold>
      <weakClassifiers>
        <_>
          <internalNodes>
            0 -1 53 -3.7066359072923660e-03</internalNodes>
          <leafValues>
            7.5757575035095215e-01 -9.6677213907241821e-01</leafValues></_>
        <_>
          <internalNodes>
            0 -1 63 3.3550325315445662e-03</internalNodes>
          <leafValues>
            -9.1053533554077148e-01 8.3483469486236572e-01</leafValues></_>
        <_>
          <internalNodes>
            0 -1 71 7.3050282662734389e-04</internalNodes>
          <leafValues>
            -8.0451107025146484e-01 9.3047183752059937e-01</leafValues></_></weakClassifiers></_>
    <!-- stage 5 -->
    <_>
      <maxWeakCount>4</maxWeakCount>
      <stageThreshold>-1.9353703260421753e+00</stageThreshold>
      <weakClassifiers>
        <_>
          <internalNodes>
            0 -1 52 1.4104768633842468e-03</internalNodes>
          <leafValues>
            -9.4819468259811401e-01 4.7826087474822998e-01</leafValues></_>
        <_>
          <internalNodes>
            0 -1 34 -1.4450417365878820e-03</internalNodes>
          <leafValues>
            4.1891527175903320e-01 -8.1048786640167236e-01</leafValues></_>
        <_>
          <internalNodes>
            0 -1 67 -1.1856947094202042e-03</internalNodes>
          <leafValues>
            5.9492075443267822e-01 -6.4075356721878052e-01</leafValues></_>
        <_>
          <internalNodes>
            0 -1 82 -9.7630745585775003e-06</internalNodes>
          <leafValues>
            4.6406573057174683e-01 -6.6517335176467896e-01</leafValues></_></weakClassifiers></_>
    <!-- stage 6 -->
    <_>
      <maxWeakCount>4</maxWeakCount>
      <stageThreshold>-1.8223313093185425e+00</stageThreshold>
      <weakClassifiers>
        <_>
          <internalNodes>
            0 -1 59 2.5199482217431068e-02</internalNodes>
          <leafValues>
            -9.3759751319885254e-01 3.3333334326744080e-01</leafValues></_>
        <_>
          <internalNodes>
            0 -1 79 1.1691205203533173e-02</internalNodes>
          <leafValues>
            -7.4221104383468628e-01 3.6311808228492737e-01</leafValues></_>
        <_>
          <internalNodes>
            0 -1 14 6.0907582519575953e-04</internalNodes>
          <leafValues>
            3.4568119049072266e-01 -7.0593035221099854e-01</leafValues></_>
        <_>
          <internalNodes>
            0 -1 47 -1.9121978431940079e-02</internalNodes>
          <leafValues>
            5.9739667177200317e-01 -4.8820394277572632e-01</leafValues></_></weakClassifiers></_>
    <!-- stage 7 -->
    <_>
      <maxWeakCount>5</maxWeakCount>
      <stageThreshold>-2.0498969554901123e+00</stageThreshold>
      <weakClassifiers>
        <_>
          <internalNodes>
            0 -1 60 -1.7897229641675949e-02</internalNodes>
          <leafValues>
            1. -9.3333333730697632e-01</leafValues></_>
        <_>
          <internalNodes>
            0 -1 46 -2.0724350586533546e-02</internalNodes>
          <leafValues>
            7.0461332798004150e-02 -8.1843107938766479e-01</leafValues></_>
        <_>
          <internalNodes>
            0 -1 33 -2.0335230146883987e-05</internalNodes>
          <leafValues>
            2.6992762088775635e-01 -6.7624539136886597e-01</leafValues></_>
        <_>
          <internalNodes>
            0 -1 50 -4.7459194320254028e-04</internalNodes>
          <leafValues>
            -1. 2.1017149090766907e-01</leafValues></_>
        <_>
          <internalNodes>
            0 -1 40 1.4161668717861176e-02</internalNodes>
          <leafValues>
            -7.7823168039321899e-01 2.8080809116363525e-01</leafValues></_></weakClassifiers></_>
    <!-- stage 8 -->
    <_>
      <maxWeakCount>4</maxWeakCount>
      <stageThreshold>-1.7604035139083862e+00</stageThreshold>
      <weakClassifiers>
        <_>
          <internalNodes>
            0 -1 49 -5.1681948825716972e-03</internalNodes>
          <leafValues>
            7.7777779102325439e-01 -9.3478262424468994e-01</leafValues></_>
        <_>
          <internalNodes>
            0 -1 55 -2.4018848314881325e-02</internalNodes>
          <leafValues>
            5.6207686662673950e-01 -7.0815998315811157e-01</leafValues></_>
        <_>
          <internalNodes>
            0 -1 44 -1.2659900676226243e-05</internalNodes>
          <leafValues>
            3.1790053844451904e-01 -6.2524074316024780e-01</leafValues></_>
        <_>
          <internalNodes>
            0 -1 76 -9.5197223126888275e-03</internalNodes>
          <leafValues>
            5.9935700893402100e-01 -4.3536144495010376e-01</leafValues></_></weakClassifiers></_>
    <!-- stage 9 -->
    <_>
      <maxWeakCount>6</maxWeakCount>
      <stageThreshold>-1.8620344400405884e+00</stageThreshold>
      <weakClassifiers>
        <_>
          <internalNodes>
            0 -1 51 5.8723851107060909e-03</internalNodes>
          <leafValues>
            -9.3178296089172363e-01 7.1428573131561279e-01</leafValues></_>
        <_>
          <internalNodes>
            0 -1 43 -7.4690818786621094e-02</internalNodes>
          <leafValues>
            7.5976654887199402e-02 -7.7109211683273315e-01</leafValues></_>
        <_>
          <internalNodes>
            0 -1 29 2.2713639773428440e-03</internalNodes>
          <leafValues>
            -6.3996070623397827e-01 2.9463565349578857e-01</leafValues></_>
        <_>
          <internalNodes>
            0 -1 0 2.9611893114633858e-04</internalNodes>
          <leafValues>
            2.0981228351593018e-01 -9.1869759559631348e-01</leafValues></_>
        <_>
          <internalNodes>
            0 -1 15 1.2061529560014606e-04</internalNodes>
          <leafValues>
            2.5704407691955566e-01 -8.2834023237228394e-01</leafValues></_>
        <_>
          <internalNodes>
            0 -1 56 -4.1182624408975244e-04</internalNodes>
          <leafValues>
            -7.4518358707427979e-01 2.5226044654846191e-01</leafValues></_></weakClassifiers></_>
    <!-- stage 10 -->
    <_>
      <maxWeakCount>4</maxWeakCount>
      <stageThreshold>-1.6596808433532715e+00</stageThreshold>
      <weakClassifiers>
        <_>
          <internalNodes>
            0 -1 30 -9.1860592365264893e-03</internalNodes>
          <leafValues>
            5.5555558204650879e-01 -9.3322980403900146e-01</leafValues></_>
        <_>
          <internalNodes>
            0 -1 73 2.6484593749046326e-02</internalNodes>
          <leafValues>
            -7.2779673337936401e-01 1.2169346958398819e-01</leafValues></_>
        <_>
          <internalNodes>
            0 -1 19 -5.3332542302086949e-04</internalNodes>
          <leafValues>
            -1. 1.0411346703767776e-01</leafValues></_>
        <_>
          <internalNodes>
            0 -1 28 1.8199443002231419e-04</internalNodes>
          <leafValues>
            1.4296862483024597e-01 -9.5225799083709717e-01</leafValues></_></weakClassifiers></_>
    <!-- stage 11 -->
    <_>
      <maxWeakCount>5</maxWeakCount>
      <stageThreshold>-2.1836416721343994e+00</stageThreshold>
      <weakClassifiers>
        <_>
          <internalNodes>
            0 -1 45 6.8870410323143005e-03</internalNodes>
          <leafValues>
            -9.3178296089172363e-01 7.1428573131561279e-01</leafValues></_>
        <_>
          <internalNodes>
            0 -1 54 -2.6138022541999817e-02</internalNodes>
          <leafValues>
            -1.7649959027767181e-01 -7.9590886831283569e-01</leafValues></_>
        <_>
          <internalNodes>
            0 -1 57 1.0450709851284046e-05</internalNodes>
          <leafValues>
            -6.8327021598815918e-01 2.0546138286590576e-01</leafValues></_>
        <_>
          <internalNodes>
            0 -1 38 -5.4706651717424393e-03</internalNodes>
          <leafValues>
            3.1849572062492371e-01 -6.0654217004776001e-01</leafValues></_>
        <_>
          <internalNodes>
            0 -1 41 -6.9156623794697225e-05</internalNodes>
          <leafValues>
            -7.1058464050292969e-01 2.8979116678237915e-01</leafValues></_></weakClassifiers></_>
    <!-- stage 12 -->
    <_>
      <maxWeakCount>4</maxWeakCount>
      <stageThreshold>-1.8825285434722900e+00</stageThreshold>
      <weakClassifiers>
        <_>
          <internalNodes>
            0 -1 8 -2.4494677782058716e-03</internalNodes>
          <leafValues>
            1. -9.3034052848815918e-01</leafValues></_>
        <_>
          <internalNodes>
            0 -1 64 -3.7191766314208508e-03</internalNodes>
          <leafValues>
            -1.7772825062274933e-01 -8.1003862619400024e-01</leafValues></_>
        <_>
          <internalNodes>
            0 -1 66 -2.9138030367903411e-04</internalNodes>
          <leafValues>
            -8.9693158864974976e-01 8.6305901408195496e-02</leafValues></_>
        <_>
          <internalNodes>
            0 -1 23 -7.0107373176142573e-05</internalNodes>
          <leafValues>
            -1. 1.2247181683778763e-01</leafValues></_></weakClassifiers></_>
    <!-- stage 13 -->
    <_>
      <maxWeakCount>5</maxWeakCount>
      <stageThreshold>-1.8226591348648071e+00</stageThreshold>
      <weakClassifiers>
        <_>
          <internalNodes>
            0 -1 61 -5.2679013460874557e-02</internalNodes>
          <leafValues>
            1. -9.3034052848815918e-01</leafValues></_>
        <_>
          <internalNodes>
            0 -1 35 -3.4658138174563646e-03</internalNodes>
          <leafValues>
            4.1358304023742676e-01 -7.2447860240936279e-01</leafValues></_>
        <_>
          <internalNodes>
            0 -1 21 -8.4765888750553131e-03</internalNodes>
          <leafValues>
            3.4738633036613464e-01 -5.8924460411071777e-01</leafValues></_>
        <_>
          <internalNodes>
            0 -1 23 5.9496211179066449e-05</internalNodes>
          <leafValues>
            2.0798778533935547e-01 -8.8579261302947998e-01</leafValues></_>
        <_>
          <internalNodes>
            0 -1 78 -2.4065488105406985e-05</internalNodes>
          <leafValues>
            3.7056630849838257e-01 -5.2005738019943237e-01</leafValues></_></weakClassifiers></_>
    <!-- stage 14 -->
    <_>
      <maxWeakCount>6</maxWeakCount>
      <stageThreshold>-1.9790984392166138e+00</stageThreshold>
      <weakClassifiers>
        <_>
          <internalNodes>
            0 -1 36 -6.0005262494087219e-03</internalNodes>
          <leafValues>
            5.0000000000000000e-01 -9.3173003196716309e-01</leafValues></_>
        <_>
          <internalNodes>
            0 -1 68 4.5996475964784622e-03</internalNodes>
          <leafValues>
            -6.8856370449066162e-01 6.2245160341262817e-01</leafValues></_>
        <_>
          <internalNodes>
            0 -1 69 6.1068250797688961e-03</internalNodes>
          <leafValues>
            -6.6524976491928101e-01 2.3693002760410309e-01</leafValues></_>
        <_>
          <internalNodes>
            0 -1 32 -4.0794117376208305e-04</internalNodes>
          <leafValues>
            6.7050409317016602e-01 -3.1338116526603699e-01</leafValues></_>
        <_>
          <internalNodes>
            0 -1 3 -3.3334695035591722e-04</internalNodes>
          <leafValues>
            -1. 2.2931802272796631e-01</leafValues></_>
        <_>
          <internalNodes>
            0 -1 39 1.4432497846428305e-04</internalNodes>
          <leafValues>
            -5.0132995843887329e-01 3.9050820469856262e-01</leafValues></_></weakClassifiers></_>
    <!-- stage 15 -->
    <_>
      <maxWeakCount>6</maxWeakCount>
      <stageThreshold>-2.0841467380523682e+00</stageThreshold>
      <weakClassifiers>
        <_>
          <internalNodes>
            0 -1 2 1.5757072716951370e-02</internalNodes>
          <leafValues>
            -9.3034052848815918e-01 1.</leafValues></_>
        <_>
          <internalNodes>
            0 -1 65 2.5884204078465700e-03</internalNodes>
          <leafValues>
            -7.0146560668945313e-01 3.3991888165473938e-01</leafValues></_>
        <_>
          <internalNodes>
            0 -1 5 -1.1568341404199600e-02</internalNodes>
          <leafValues>
            3.6435222625732422e-01 -4.9104622006416321e-01</leafValues></_>
        <_>
          <internalNodes>
            0 -1 16 -1.1448641307651997e-03</internalNodes>
          <leafValues>
            5.0359016656875610e-01 -4.1474997997283936e-01</leafValues></_>
        <_>
          <internalNodes>
            0 -1 24 5.3009158000349998e-04</internalNodes>
          <leafValues>
            2.5189682841300964e-01 -8.9716565608978271e-01</leafValues></_>
        <_>
          <internalNodes>
            0 -1 4 6.6585118474904448e-05</internalNodes>
          <leafValues>
            2.0155873894691467e-01 -9.2118144035339355e-01</leafValues></_></weakClassifiers></_>
    <!-- stage 16 -->
    <_>
      <maxWeakCount>5</maxWeakCount>
      <stageThreshold>-2.1670715808868408e+00</stageThreshold>
      <weakClassifiers>
        <_>
          <internalNodes>
            0 -1 75 -3.8581758271902800e-03</internalNodes>
          <leafValues>
            1. -9.3034052848815918e-01</leafValues></_>
        <_>
          <internalNodes>
            0 -1 17 3.5076271742582321e-03</internalNodes>
          <leafValues>
            -7.5384467840194702e-01 1.1520649492740631e-01</leafValues></_>
        <_>
          <internalNodes>
            0 -1 74 1.4359215274453163e-03</internalNodes>
          <leafValues>
            -5.5186742544174194e-01 3.5964837670326233e-01</leafValues></_>
        <_>
          <internalNodes>
            0 -1 12 -9.6037883849930950e-06</internalNodes>
          <leafValues>
            3.9699655771255493e-01 -4.4920080900192261e-01</leafValues></_>
        <_>
          <internalNodes>
            0 -1 62 -7.0231856079772115e-04</internalNodes>
          <leafValues>
            5.1818192005157471e-01 -3.7387511134147644e-01</leafValues></_></weakClassifiers></_>
    <!-- stage 17 -->
    <_>
      <maxWeakCount>5</maxWeakCount>
      <stageThreshold>-1.8909015655517578e+00</stageThreshold>
      <weakClassifiers>
        <_>
          <internalNodes>
            0 -1 42 4.6841362491250038e-03</internalNodes>
          <leafValues>
            -9.3028658628463745e-01 6.6666668653488159e-01</leafValues></_>
        <_>
          <internalNodes>
            0 -1 1 1.3346182182431221e-02</internalNodes>
          <leafValues>
            -7.0526546239852905e-01 1.4618726074695587e-01</leafValues></_>
        <_>
          <internalNodes>
            0 -1 13 -5.4194508120417595e-03</internalNodes>
          <leafValues>
            3.0022054910659790e-01 -5.7784152030944824e-01</leafValues></_>
        <_>
          <internalNodes>
            0 -1 20 4.4599774992093444e-04</internalNodes>
          <leafValues>
            1.9626894593238831e-01 -8.7457549571990967e-01</leafValues></_>
        <_>
          <internalNodes>
            0 -1 22 -7.1566272526979446e-03</internalNodes>
          <leafValues>
            3.1900545954704285e-01 -6.1461782455444336e-01</leafValues></_></weakClassifiers></_></stages>
  <features>
    <_>
      <rects>
        <_>
          0 0 14 3 -1.</_>
        <_>
          0 1 14 1 3.</_></rects>
      <tilted>0</tilted></_>
    <_>
      <rects>
        <_>
          0 9 36 1 -1.</_>
        <_>
          12 9 12 1 3.</_></rects>
      <tilted>0</tilted></_>
    <_>
      <rects>
        <_>
          0 20 5 6 -1.</_>
        <_>
          0 22 5 2 3.</_></rects>
      <tilted>0</tilted></_>
    <_>
      <rects>
        <_>
          0 25 2 6 -1.</_>
        <_>
          0 27 2 2 3.</_></rects>
      <tilted>0</tilted></_>
    <_>
      <rects>
        <_>
          0 43 3 2 -1.</_>
        <_>
          0 44 3 1 2.</_></rects>
      <tilted>0</tilted></_>
    <_>
      <rects>
        <_>
          1 4 10 23 -1.</_>
        <_>
          6 4 5 23 2.</_></rects>
      <tilted>0</tilted></_>
    <_>
      <rects>
        <_>
          1 5 3 6 -1.</_>
        <_>
          1 8 3 3 2.</_></rects>
      <tilted>0</tilted></_>
    <_>
      <rects>
        <_>
          1 16 18 17 -1.</_>
        <_>
          10 16 9 17 2.</_></rects>
      <tilted>0</tilted></_>
    <_>
      <rects>
        <_>
          1 22 1 4 -1.</_>
        <_>
          1 24 1 2 2.</_></rects>
      <tilted>0</tilted></_>
    <_>
      <rects>
        <_>
          1 25 1 18 -1.</_>
        <_>
          1 31 1 6 3.</_></rects>
      <tilted>0</tilted></_>
    <_>
      <rects>
        <_>
          1 33 2 6 -1.</_>
        <_>
          1 36 2 3 2.</_></rects>
      <tilted>0</tilted></_>
    <_>
      <rects>
        <_>
          1 38 6 4 -1.</_>
        <_>
          1 40 6 2 2.</_></rects>
      <tilted>0</tilted></_>
    <_>
      <rects>
        <_>
          2 1 1 2 -1.</_>
        <_>
          2 2 1 1 2.</_></rects>
      <tilted>0</tilted></_>
    <_>
      <rects>
        <_>
          2 1 8 25 -1.</_>
        <_>
          6 1 4 25 2.</_></rects>
      <tilted>0</tilted></_>
    <_>
      <rects>
        <_>
          2 4 2 8 -1.</_>
        <_>
          2 8 2 4 2.</_></rects>
      <tilted>0</tilted></_>
    <_>
      <rects>
        <_>
          2 6 6 1 -1.</_>
        <_>
          4 6 2 1 3.</_></rects>
      <tilted>0</tilted></_>
    <_>
      <rects>
        <_>
          2 22 20 2 -1.</_>
        <_>
          2 22 10 1 2.</_>
        <_>
          12 23 10 1 2.</_></rects>
      <tilted>0</tilted></_>
    <_>
      <rects>
        <_>
          2 23 8 6 -1.</_>
        <_>
          2 23 4 3 2.</_>
        <_>
          6 26 4 3 2.</_></rects>
      <tilted>0</tilted></_>
    <_>
      <rects>
        <_>
          2 44 4 2 -1.</_>
        <_>
          2 45 4 1 2.</_></rects>
      <tilted>0</tilted></_>
    <_>
      <rects>
        <_>
          3 0 2 11 -1.</_>
        <_>
          4 0 1 11 2.</_></rects>
      <tilted>0</tilted></_>
    <_>
      <rects>
        <_>
          3 1 2 7 -1.</_>
        <_>
          4 1 1 7 2.</_></rects>
      <tilted>0</tilted></_>
    <_>
      <rects>
        <_>
          3 25 22 8 -1.</_>
        <_>
          3 25 11 4 2.</_>
        <_>
          14 29 11 4 2.</_></rects>
      <tilted>0</tilted></_>
    <_>
      <rects>
        <_>
          4 24 34 2 -1.</_>
        <_>
          21 24 17 2 2.</_></rects>
      <tilted>0</tilted></_>
    <_>
      <rects>
        <_>
          5 0 1 2 -1.</_>
        <_>
          5 1 1 1 2.</_></rects>
      <tilted>0</tilted></_>
    <_>
      <rects>
        <_>
          5 33 4 10 -1.</_>
        <_>
          5 33 2 5 2.</_>
        <_>
          7 38 2 5 2.</_></rects>
      <tilted>0</tilted></_>
    <_>
      <rects>
        <_>
          5 36 30 5 -1.</_>
        <_>
          15 36 10 5 3.</_></rects>
      <tilted>0</tilted></_>
    <_>
      <rects>
        <_>
          7 16 6 17 -1.</_>
        <_>
          10 16 3 17 2.</_></rects>
      <tilted>0</tilted></_>
    <_>
      <rects>
        <_>
          8 12 6 18 -1.</_>
        <_>
          11 12 3 18 2.</_></rects>
      <tilted>0</tilted></_>
    <_>
      <rects>
        <_>
          9 0 2 5 -1.</_>
        <_>
          10 0 1 5 2.</_></rects>
      <tilted>0</tilted></_>
    <_>
      <rects>
        <_>
          9 16 7 9 -1.</_>
        <_>
          9 19 7 3 3.</_></rects>
      <tilted>0</tilted></_>
    <_>
      <rects>
        <_>
          10 22 14 3 -1.</_>
        <_>
          10 23 14 1 3.</_></rects>
      <tilted>0</tilted></_>
    <_>
      <rects>
        <_>
          11 8 26 21 -1.</_>
        <_>
          24 8 13 21 2.</_></rects>
      <tilted>0</tilted></_>
    <_>
      <rects>
        <_>
          11 14 3 1 -1.</_>
        <_>
          12 14 1 1 3.</_></rects>
      <tilted>0</tilted></_>
    <_>
      <rects>
        <_>
          12 21 2 2 -1.</_>
        <_>
          12 21 1 1 2.</_>
        <_>
          13 22 1 1 2.</_></rects>
      <tilted>0</tilted></_>
    <_>
      <rects>
        <_>
          12 29 9 3 -1.</_>
        <_>
          12 30 9 1 3.</_></rects>
      <tilted>0</tilted></_>
    <_>
      <rects>
        <_>
          13 14 6 4 -1.</_>
        <_>
          13 14 3 2 2.</_>
        <_>
          16 16 3 2 2.</_></rects>
      <tilted>0</tilted></_>
    <_>
      <rects>
        <_>
          13 20 7 3 -1.</_>
        <_>
          13 21 7 1 3.</_></rects>
      <tilted>0</tilted></_>
    <_>
      <rects>
        <_>
          13 34 24 12 -1.</_>
        <_>
          25 34 12 12 2.</_></rects>
      <tilted>0</tilted></_>
    <_>
      <rects>
        <_>
          14 10 9 8 -1.</_>
        <_>
          14 14 9 4 2.</_></rects>
      <tilted>0</tilted></_>
    <_>
      <rects>
        <_>
          14 20 8 2 -1.</_>
        <_>
          14 20 4 1 2.</_>
        <_>
          18 21 4 1 2.</_></rects>
      <tilted>0</tilted></_>
    <_>
      <rects>
        <_>
          14 22 24 20 -1.</_>
        <_>
          14 22 12 10 2.</_>
        <_>
          26 32 12 10 2.</_></rects>
      <tilted>0</tilted></_>
    <_>
      <rects>
        <_>
          14 43 21 3 -1.</_>
        <_>
          14 44 21 1 3.</_></rects>
      <tilted>0</tilted></_>
    <_>
      <rects>
        <_>
          15 23 4 3 -1.</_>
        <_>
          15 24 4 1 3.</_></rects>
      <tilted>0</tilted></_>
    <_>
      <rects>
        <_>
          16 7 17 24 -1.</_>
        <_>
          16 15 17 8 3.</_></rects>
      <tilted>0</tilted></_>
    <_>
      <rects>
        <_>
          16 20 2 2 -1.</_>
        <_>
          16 20 1 1 2.</_>
        <_>
          17 21 1 1 2.</_></rects>
      <tilted>0</tilted></_>
    <_>
      <rects>
        <_>
          16 25 8 3 -1.</_>
        <_>
          16 26 8 1 3.</_></rects>
      <tilted>0</tilted></_>
    <_>
      <rects>
        <_>
          17 10 8 15 -1.</_>
        <_>
          17 15 8 5 3.</_></rects>
      <tilted>0</tilted></_>
    <_>
      <rects>
        <_>
          17 25 14 12 -1.</_>
        <_>
          17 29 14 4 3.</_></rects>
      <tilted>0</tilted></_>
    <_>
      <rects>
        <_>
          18 5 11 14 -1.</_>
        <_>
          18 12 11 7 2.</_></rects>
      <tilted>0</tilted></_>
    <_>
      <rects>
        <_>
          18 22 5 3 -1.</_>
        <_>
          18 23 5 1 3.</_></rects>
      <tilted>0</tilted></_>
    <_>
      <rects>
        <_>
          19 0 10 3 -1.</_>
        <_>
          19 1 10 1 3.</_></rects>
      <tilted>0</tilted></_>
    <_>
      <rects>
        <_>
          19 20 8 2 -1.</_>
        <_>
          19 21 8 1 2.</_></rects>
      <tilted>0</tilted></_>
    <_>
      <rects>
        <_>
          19 23 3 3 -1.</_>
        <_>
          19 24 3 1 3.</_></rects>
      <tilted>0</tilted></_>
    <_>
      <rects>
        <_>
          19 26 3 9 -1.</_>
        <_>
          19 29 3 3 3.</_></rects>
      <tilted>0</tilted></_>
    <_>
      <rects>
        <_>
          20 5 10 12 -1.</_>
        <_>
          20 11 10 6 2.</_></rects>
      <tilted>0</tilted></_>
    <_>
      <rects>
        <_>
          20 21 8 12 -1.</_>
        <_>
          20 25 8 4 3.</_></rects>
      <tilted>0</tilted></_>
    <_>
      <rects>
        <_>
          20 42 12 4 -1.</_>
        <_>
          20 42 6 2 2.</_>
        <_>
          26 44 6 2 2.</_></rects>
      <tilted>0</tilted></_>
    <_>
      <rects>
        <_>
          20 44 2 1 -1.</_>
        <_>
          21 44 1 1 2.</_></rects>
      <tilted>0</tilted></_>
    <_>
      <rects>
        <_>
          21 12 10 18 -1.</_>
        <_>
          21 12 5 9 2.</_>
        <_>
          26 21 5 9 2.</_></rects>
      <tilted>0</tilted></_>
    <_>
      <rects>
        <_>
          22 5 8 14 -1.</_>
        <_>
          22 5 4 7 2.</_>
        <_>
          26 12 4 7 2.</_></rects>
      <tilted>0</tilted></_>
    <_>
      <rects>
        <_>
          23 10 14 4 -1.</_>
        <_>
          23 12 14 2 2.</_></rects>
      <tilted>0</tilted></_>
    <_>
      <rects>
        <_>
          24 10 10 14 -1.</_>
        <_>
          24 10 5 7 2.</_>
        <_>
          29 17 5 7 2.</_></rects>
      <tilted>0</tilted></_>
    <_>
      <rects>
        <_>
          24 13 4 4 -1.</_>
        <_>
          24 13 2 2 2.</_>
        <_>
          26 15 2 2 2.</_></rects>
      <tilted>0</tilted></_>
    <_>
      <rects>
        <_>
          24 17 12 2 -1.</_>
        <_>
          28 17 4 2 3.</_></rects>
      <tilted>0</tilted></_>
    <_>
      <rects>
        <_>
          25 24 6 8 -1.</_>
        <_>
          27 24 2 8 3.</_></rects>
      <tilted>0</tilted></_>
    <_>
      <rects>
        <_>
          25 32 5 3 -1.</_>
        <_>
          25 33 5 1 3.</_></rects>
      <tilted>0</tilted></_>
    <_>
      <rects>
        <_>
          26 0 4 4 -1.</_>
        <_>
          28 0 2 4 2.</_></rects>
      <tilted>0</tilted></_>
    <_>
      <rects>
        <_>
          26 13 2 6 -1.</_>
        <_>
          26 15 2 2 3.</_></rects>
      <tilted>0</tilted></_>
    <_>
      <rects>
        <_>
          26 18 3 6 -1.</_>
        <_>
          27 18 1 6 3.</_></rects>
      <tilted>0</tilted></_>
    <_>
      <rects>
        <_>
          26 29 6 12 -1.</_>
        <_>
          26 35 6 6 2.</_></rects>
      <tilted>0</tilted></_>
    <_>
      <rects>
        <_>
          28 0 2 36 -1.</_>
        <_>
          28 18 2 18 2.</_></rects>
      <tilted>0</tilted></_>
    <_>
      <rects>
        <_>
          28 10 4 4 -1.</_>
        <_>
          28 10 2 2 2.</_>
        <_>
          30 12 2 2 2.</_></rects>
      <tilted>0</tilted></_>
    <_>
      <rects>
        <_>
          28 12 6 20 -1.</_>
        <_>
          30 12 2 20 3.</_></rects>
      <tilted>0</tilted></_>
    <_>
      <rects>
        <_>
          28 13 6 27 -1.</_>
        <_>
          30 13 2 27 3.</_></rects>
      <tilted>0</tilted></_>
    <_>
      <rects>
        <_>
          29 11 3 11 -1.</_>
        <_>
          30 11 1 11 3.</_></rects>
      <tilted>0</tilted></_>
    <_>
      <rects>
        <_>
          30 7 5 2 -1.</_>
        <_>
          30 8 5 1 2.</_></rects>
      <tilted>0</tilted></_>
    <_>
      <rects>
        <_>
          30 11 8 12 -1.</_>
        <_>
          30 11 4 6 2.</_>
        <_>
          34 17 4 6 2.</_></rects>
      <tilted>0</tilted></_>
    <_>
      <rects>
        <_>
          30 19 6 5 -1.</_>
        <_>
          33 19 3 5 2.</_></rects>
      <tilted>0</tilted></_>
    <_>
      <rects>
        <_>
          30 30 4 1 -1.</_>
        <_>
          32 30 2 1 2.</_></rects>
      <tilted>0</tilted></_>
    <_>
      <rects>
        <_>
          31 28 3 10 -1.</_>
        <_>
          31 33 3 5 2.</_></rects>
      <tilted>0</tilted></_>
    <_>
      <rects>
        <_>
          32 1 6 42 -1.</_>
        <_>
          32 15 6 14 3.</_></rects>
      <tilted>0</tilted></_>
    <_>
      <rects>
        <_>
          34 8 4 6 -1.</_>
        <_>
          36 8 2 6 2.</_></rects>
      <tilted>0</tilted></_>
    <_>
      <rects>
        <_>
          36 43 1 2 -1.</_>
        <_>
          36 44 1 1 2.</_></rects>
      <tilted>0</tilted></_></features></cascade>
</opencv_storage>
